0.701607 -0.676962 
0.875615 -0.281319 
0.522381 -0.964357 
0.575902 0.312991 
0.220857 0.483765 
0.565620 0.149759 
-0.436900 -0.677521 
-0.745607 0.520679 
0.811038 0.668530 
-0.831504 -0.164584 
0.813530 -0.056438 
-0.890945 -0.451114 
0.462126 0.855125 
-0.065549 -0.457100 
0.864459 0.075887 
-0.173895 -0.182298 
0.398926 0.953356 
-0.211982 -0.078693 
0.988998 0.615555 
0.485933 -0.538509 
0.099320 0.051553 
0.611250 -0.085944 
-0.374333 0.117278 
-0.565265 0.688340 
-0.214192 -0.396769 
-0.476244 -0.400662 
0.546793 0.884447 
0.148224 -0.739446 
-0.008793 0.334310 
-0.944911 -0.892698 
-0.589802 -0.867171 
-0.074996 0.060759 
-0.913815 -0.035343 
0.982065 0.326818 
-0.419787 0.467998 
0.788309 -0.068832 
0.771187 -0.348806 
0.845224 -0.603146 
0.020107 -0.720041 
-0.914806 0.805915 
-0.865174 0.860586 
0.656888 -0.066747 
-0.003332 -0.943252 
0.193807 0.987875 
0.391058 -0.499469 
-0.904823 0.052891 
-0.366640 -0.728185 
-0.886350 0.971180 
0.236473 0.347350 
0.297998 0.816685 
-0.933016 -0.662057 
-0.252147 0.089806 
-0.759228 0.844712 
0.486660 0.260879 
-0.875328 -0.176511 
-0.681571 0.511132 
0.935710 0.975318 
-0.555614 -0.067622 
0.283701 -0.110172 
-0.079747 -0.325241 
0.390359 -0.732936 
-0.020714 -0.976280 
0.790515 0.092935 
0.246535 0.026988 
0.691921 -0.455467 
-0.904692 0.758905 
-0.865889 -0.905203 
-0.151289 -0.625117 
0.939509 0.587006 
-0.112602 0.315816 
0.662130 -0.542538 
-0.173051 0.597840 
0.684415 -0.477030 
-0.469782 -0.031884 
0.412798 -0.297894 
-0.105489 -0.945207 
-0.779195 0.873796 
0.330148 -0.988680 
-0.781633 -0.423317 
-0.710057 0.910287 
-0.627149 -0.614748 
-0.079173 -0.493038 
0.731684 0.021173 
-0.866520 0.671193 
-0.391822 -0.727486 
-0.761356 -0.729692 
-0.270024 0.065593 
0.119783 -0.585609 
0.588563 0.650001 
-0.365857 -0.747004 
-0.647893 0.528653 
-0.692211 -0.427088 
0.402449 0.637937 
0.835868 0.620816 
-0.785380 -0.874189 
0.531103 -0.412530 
0.762697 0.703566 
-0.653933 0.494381 
-0.275262 -0.520452 
-0.582791 -0.415448 
-0.247938 -0.344146 
-0.893504 -0.266327 
-0.026918 0.226279 
-0.600301 -0.438356 
-0.123720 0.033842 
-0.185359 -0.519978 
-0.437505 0.122430 
-0.695430 0.964944 
-0.987998 -0.859563 
-0.162604 0.478257 
0.517883 0.620134 
-0.934273 0.280580 
0.323700 -0.588205 
-0.973403 -0.951562 
-0.857022 -0.556194 
0.884626 -0.853325 
-0.648705 0.991121 
-0.868017 0.324376 
0.217400 -0.468318 
0.137656 0.345316 
0.565524 0.203932 
0.076973 0.379654 
0.577997 0.381543 
-0.403766 0.590000 
-0.226385 0.433630 
0.068257 -0.708502 
-0.694601 -0.614381 
-0.176286 0.629099 
-0.950951 -0.149689 
-0.070827 -0.807973 
-0.454248 -0.186202 
0.590337 -0.851318 
-0.943445 0.722320 
-0.275307 -0.474410 
0.505637 0.862349 
0.870906 -0.677204 
0.066281 -0.052121 
0.702451 -0.355722 
0.581058 0.550320 
0.485913 -0.645327 
-0.016051 -0.445830 
0.897807 0.289349 
-0.060211 -0.278479 
-0.829917 -0.011162 
-0.176533 0.099256 
-0.567500 -0.379146 
0.164689 -0.977163 
-0.978829 0.221244 
-0.003208 -0.254136 
-0.001531 -0.497571 
0.859848 -0.130625 
-0.174775 -0.073872 
0.068890 0.779311 
-0.177958 -0.350053 
0.329630 -0.692045 
-0.743744 0.565215 
-0.137876 -0.845937 
-0.893801 0.053548 
-0.872781 -0.723718 
0.294021 -0.797679 
-0.372827 0.726521 
-0.925189 0.043497 
0.000993 -0.904019 
0.516376 0.249420 
-0.906520 -0.485155 
0.751849 0.953328 
-0.364145 0.828709 
-0.868908 0.704745 
-0.140345 -0.046866 
0.606328 -0.810715 
-0.487276 0.862584 
0.006135 -0.373517 
0.268282 0.112334 
0.680031 -0.352864 
-0.359749 -0.774312 
-0.898907 -0.480941 
0.952209 -0.824097 
0.562556 -0.795163 
0.523520 -0.669433 
0.454257 -0.131365 
-0.154588 -0.542259 
-0.178037 0.481268 
0.538085 -0.795310 
-0.562352 -0.602260 
0.157823 -0.956024 
-0.412975 0.670547 
0.906560 -0.155205 
0.548665 -0.573523 
0.957129 0.228696 
-0.674752 0.849015 
0.454384 -0.573660 
-0.631926 -0.341772 
0.853879 0.182265 
-0.885300 -0.370967 
0.512832 -0.179407 
0.497668 0.609880 
0.278334 0.571266 
-0.657217 -0.183581 
0.775956 -0.219569 
-0.534206 -0.066221 
-0.175593 -0.695547 
0.855961 0.982602 
0.149248 0.404626 
0.660714 -0.641988 
0.884957 0.985962 
-0.792973 -0.409024 
-0.587698 0.826736 
-0.499160 -0.733819 
-0.739363 0.867175 
-0.104786 0.025104 
-0.312232 0.644517 
-0.365016 0.217737 
0.215784 -0.770598 
0.285791 -0.008261 
0.009833 0.751585 
0.177153 0.085876 
-0.943962 -0.715251 
-0.679887 0.205287 
-0.058990 0.980826 
0.563299 -0.174033 
0.218423 0.021961 
-0.331421 0.630725 
-0.151303 -0.578947 
0.148541 0.109334 
-0.711771 0.295390 
0.386074 -0.772368 
-0.060093 -0.978942 
-0.302996 -0.844309 
-0.749540 0.982795 
-0.600935 -0.488071 
-0.013984 0.576219 
0.597805 0.042054 
0.860968 0.169553 
0.498976 -0.946387 
0.150379 -0.686090 
-0.868785 -0.631197 
-0.412493 -0.200206 
0.251163 -0.312160 
-0.527518 0.651339 
0.048809 -0.987654 
-0.053270 -0.565117 
-0.760022 0.138272 
-0.544059 -0.063017 
-0.454401 0.958036 
-0.828587 -0.055336 
0.721600 0.157429 
0.772518 0.319405 
0.451119 -0.114879 
-0.511042 -0.049905 
-0.061266 -0.109027 
-0.484359 0.069949 
-0.488589 0.103148 
0.121378 0.762574 
0.790987 0.593861 
0.413913 -0.160204 
-0.142158 0.612278 
