0.936316 0.089100 
-0.718126 -0.190729 
0.015819 -0.811106 
-0.583270 0.341779 
0.325258 -0.394004 
0.594878 0.208329 
0.238944 0.965921 
0.660971 0.109811 
0.458935 0.454414 
0.653647 -0.025561 
-0.179791 0.192178 
-0.723546 0.899987 
0.654448 0.756189 
0.682307 0.703661 
-0.957128 -0.818724 
-0.874688 0.230823 
0.270376 0.658821 
0.291729 0.537831 
0.847715 0.708459 
-0.120390 -0.575392 
-0.685544 0.726123 
-0.115428 0.553399 
0.692045 -0.454457 
0.914846 -0.597385 
0.251592 0.568492 
-0.371311 -0.928199 
-0.239330 -0.094857 
0.223423 -0.584882 
-0.338668 -0.094270 
0.370414 0.955839 
-0.661359 0.495726 
0.186662 0.609017 
0.154548 -0.521608 
0.146848 -0.746102 
0.438486 0.278093 
0.930142 0.752942 
0.004216 -0.933651 
-0.442024 0.947896 
0.863528 -0.527178 
-0.649490 0.115120 
0.292949 -0.020800 
-0.561444 0.305254 
0.884343 -0.086386 
-0.027993 0.797310 
0.819344 -0.657579 
0.753149 -0.842015 
0.838148 -0.808554 
0.018637 -0.755669 
0.921473 0.417120 
-0.501770 0.359959 
-0.304788 0.680007 
-0.635464 -0.048937 
0.746356 -0.077488 
-0.849406 0.609884 
-0.353031 -0.498895 
0.976639 0.191553 
-0.268061 -0.584805 
-0.503193 0.867917 
0.328809 0.468815 
0.665227 -0.600212 
0.811236 -0.329989 
0.809408 -0.098980 
-0.138543 -0.920320 
0.145351 -0.217071 
0.496800 -0.104784 
0.394524 -0.807988 
-0.424778 0.759059 
0.143076 0.573214 
0.933206 -0.454695 
-0.565268 -0.419825 
0.046410 -0.588629 
0.023364 0.029984 
-0.921799 0.520171 
-0.850464 -0.341355 
-0.011014 0.814763 
0.058433 -0.948143 
0.736409 -0.880524 
-0.047123 0.849501 
-0.800844 0.349863 
0.884066 0.695956 
0.496714 0.278589 
0.139604 0.323571 
0.037648 0.534315 
-0.103215 -0.029145 
-0.920380 0.331517 
-0.197335 -0.622335 
-0.005477 0.826029 
0.407649 0.072724 
-0.402165 0.557185 
0.731369 -0.161544 
-0.376416 -0.958563 
-0.109687 -0.640007 
-0.839087 0.094826 
-0.790506 -0.639931 
0.696324 -0.906440 
0.307660 0.193038 
-0.376215 -0.552736 
-0.483391 0.661433 
0.981579 0.413394 
0.883923 -0.938802 
0.996547 0.938224 
-0.561137 -0.008930 
0.015888 0.098147 
0.315429 -0.134642 
-0.344668 0.046798 
0.703814 -0.469449 
-0.660130 0.845763 
-0.857820 -0.499217 
-0.059411 -0.648326 
-0.887513 -0.363088 
0.696869 -0.328218 
0.081585 0.572289 
0.119046 0.598195 
-0.514642 -0.647740 
-0.736776 0.620916 
0.665093 -0.740229 
0.559140 0.355592 
-0.497524 0.826663 
-0.546262 0.069541 
-0.307979 -0.639294 
0.367974 -0.604165 
-0.108743 0.707844 
0.493233 0.033437 
0.460262 -0.566179 
-0.363254 0.572749 
-0.677631 0.585250 
-0.755469 0.403955 
-0.590825 -0.384787 
-0.746216 -0.105468 
-0.780892 -0.482991 
-0.484552 0.884202 
-0.971585 0.326223 
0.239793 0.782526 
0.152886 -0.054833 
-0.896298 0.096542 
-0.442492 0.471676 
-0.255988 -0.299600 
-0.568845 -0.762755 
0.733836 0.891417 
0.922702 0.622217 
-0.284199 0.496706 
-0.540897 -0.788032 
-0.099339 -0.131722 
-0.172819 -0.593920 
0.014445 0.046289 
-0.076911 0.529893 
-0.817874 -0.796861 
-0.143883 -0.326445 
0.985666 0.260638 
0.618721 -0.910632 
0.608815 -0.823771 
-0.187321 -0.647173 
-0.123371 0.243834 
0.841707 0.862101 
0.135251 0.764409 
-0.264047 0.851053 
0.261115 -0.553308 
0.314656 0.413411 
-0.433396 0.393472 
0.819492 0.581050 
-0.560239 0.994216 
-0.637422 0.873523 
-0.802644 -0.529670 
-0.452923 0.434656 
0.730968 0.417434 
-0.224341 -0.408582 
-0.154702 0.588338 
-0.055755 -0.026437 
-0.916193 -0.214049 
-0.164337 -0.529307 
0.801996 -0.176748 
-0.678254 0.063111 
-0.478421 -0.111963 
-0.523478 0.088183 
-0.718491 0.547649 
0.920868 0.972905 
0.541865 -0.716554 
0.846428 0.739220 
-0.246223 0.645140 
-0.574488 0.736380 
0.062574 0.201171 
-0.672203 0.907873 
-0.958856 -0.476323 
-0.118565 0.376586 
-0.438736 -0.031266 
0.847280 -0.636740 
0.043621 0.420661 
-0.321994 0.565199 
-0.691302 -0.593837 
-0.346617 -0.409794 
0.953811 0.825886 
-0.436888 0.495676 
-0.890667 0.661174 
-0.513468 -0.885256 
0.306314 -0.087957 
0.851124 -0.631112 
0.364850 0.430557 
0.528396 -0.342371 
0.205869 0.661467 
-0.965785 0.018769 
0.881836 0.881494 
-0.366336 -0.074543 
0.302155 0.311669 
-0.509344 0.610853 
0.717832 -0.604326 
0.452695 0.671643 
0.473195 -0.984194 
-0.581046 0.582528 
0.676980 -0.094514 
-0.051093 -0.765070 
0.069165 -0.948333 
0.855454 0.685650 
0.482224 -0.364515 
-0.656721 0.939728 
-0.703048 -0.622507 
-0.041503 0.430423 
0.510623 -0.156204 
-0.644120 -0.187222 
-0.844535 -0.901829 
0.675266 0.124932 
0.745480 -0.620404 
-0.951789 0.218675 
0.647038 -0.532835 
-0.947162 -0.424347 
-0.375713 0.001745 
-0.189417 -0.054913 
0.053412 -0.333963 
-0.369263 0.787271 
0.301522 -0.025985 
-0.021365 -0.149890 
-0.396856 0.188767 
-0.719468 -0.886233 
-0.967437 0.888047 
-0.821820 0.439663 
0.237853 0.105082 
-0.435405 -0.016667 
0.484678 -0.387194 
0.453643 0.131716 
-0.668394 0.506481 
0.707369 -0.792472 
0.759861 0.769587 
0.152615 -0.935092 
-0.564376 0.783351 
0.852179 -0.011218 
-0.242633 -0.169186 
0.090526 -0.387854 
-0.980419 0.371059 
-0.274087 0.303779 
-0.489259 -0.844272 
-0.256558 0.748595 
0.260810 0.308038 
0.983563 0.997123 
0.172479 0.437206 
-0.619525 -0.244279 
-0.804677 0.339479 
-0.036751 0.206819 
